[[{"bias":0.020446569109288285,"weights":[-0.09009704296282896,-0.018460661703750585,-0.010497471660760597,-0.021544572350788632]},{"bias":-0.1727102670024913,"weights":[-0.10657258699287636,0.1817238519418628,-0.007464621939405468,-0.01439681257310535]},{"bias":0.15537256670914618,"weights":[-0.13909235760496858,-0.169479275981064,-0.2072139745163839,0.07242068206143223]},{"bias":0.02345043653222207,"weights":[0.03997512619765631,-0.14277344075290616,0.009079506153612013,-0.20961111636927787]},{"bias":0.0938316887315826,"weights":[-0.09053786525674715,-0.04937480173916968,-0.07185849352651626,-0.10501992237197652]},{"bias":0.05846511640025816,"weights":[0.01413163694249616,0.013935230887336364,-0.1998852397122733,-0.022630274180612895]},{"bias":0.03096436581216576,"weights":[-0.013083096498922836,0.30121163841059406,0.04010401443200993,-0.10991809866743799]},{"bias":0.0023729004364167333,"weights":[-0.09484521126982878,0.052554960157244895,-0.03424323571676727,0.1706349835698452]},{"bias":0.1309019320979952,"weights":[-0.21137204072272697,0.04183960568735377,-0.054177205039750036,-0.08845015893505641]},{"bias":-0.04850222473194338,"weights":[0.06987709852780517,0.015795403323920848,-0.12482794986129156,-0.13549608181465514]},{"bias":-0.14507303486569514,"weights":[0.23828852986176596,0.0038107283869026065,0.12006427503450512,-0.009428599920601466]},{"bias":-0.21989734226482005,"weights":[-0.12256724546608623,0.13267661804523787,0.06577814411179347,-0.31592631596988413]},{"bias":-0.36397349674869733,"weights":[0.23017226385900388,0.1310423840731373,0.09076053574246176,0.0024068596251204596]},{"bias":-0.19874099550539492,"weights":[0.11003176177656547,0.2942992020597149,0.11156305311887411,-0.16047431741624116]},{"bias":-0.05250323961214244,"weights":[-0.1362429359454604,-0.06931985732370932,0.01341666137521421,-0.024741367127344156]},{"bias":0.09927694470989237,"weights":[-0.22846469187366025,-0.12115466061731082,0.15985282588195251,-0.06204706836324214]},{"bias":0.05189280970689186,"weights":[-0.1484606825894295,0.04853707655685679,0.09461137714110684,0.047053545236745126]},{"bias":-0.009269378020809398,"weights":[-0.28799324628299444,-0.11401132848173803,0.03101035417634275,-0.19932795527492222]},{"bias":0.053403327066973316,"weights":[0.07674912016789873,0.010585206753116963,-0.298649283601776,-0.024320921446484352]},{"bias":0.08717407574847988,"weights":[0.2824561603485163,0.0989976539855977,-0.06800088773583951,0.28678179487105154]},{"bias":-0.2634734232644651,"weights":[0.004625325551640025,0.03564811108507833,-0.18548055233586044,0.008896957944402338]},{"bias":0.06493418999276644,"weights":[0.15811972510106884,-0.06863878521294163,-0.03615088159078275,-0.01426471139119477]},{"bias":0.11348150130059156,"weights":[0.12169372791750083,-0.22555729967563484,0.15718131105841648,0.16472385413839857]},{"bias":-0.16862545291287723,"weights":[0.09709844159076629,-0.07567882593487477,0.0015882154261293857,0.14170454352290363]},{"bias":0.03735120549683127,"weights":[0.07124568292276288,0.09843718505954357,-0.08341830382405108,-0.10644089110668235]},{"bias":-0.04649024627279194,"weights":[-0.035354974807478554,0.25775403203574904,-0.037373210914650144,0.041062049300267814]},{"bias":-0.0017447204434648117,"weights":[0.1272107764745482,-0.0906926055614188,-0.11414548469307723,-0.03884965148014813]},{"bias":0.04816481505426987,"weights":[0.05924885239168877,0.24929944503961138,0.032029368389333,0.07383755557553548]},{"bias":-0.16564842265759455,"weights":[-0.13276158121669565,-0.14666384156964915,-0.1601341631247099,-0.08323008108005245]},{"bias":-0.2298101354578579,"weights":[0.07070710861294388,-0.08962243562923597,-0.09191154314502784,-0.1938016790941102]},{"bias":-0.02664513099789014,"weights":[0.23652513819372242,0.16625826921426118,-0.18127825665636668,-0.0474541013756712]},{"bias":-0.23108145193529356,"weights":[-0.08216212168686901,-0.08245870561741027,0.1280264194007375,-0.06929327058302173]}],[{"bias":-0.044198210712165134,"weights":[-0.12205852716747248,-0.07488353165441289,-0.004632648348810342,-0.08604475047503374]},{"bias":0.14226854010501438,"weights":[-0.01659141570243164,0.013362843743819137,0.14699373095199214,-0.06117369386673348]},{"bias":-0.008004029230843063,"weights":[0.14002330060096158,0.019751930228231115,0.0802244073280953,0.10148931782193518]},{"bias":-0.07727902644179475,"weights":[-0.06954669749765129,0.10023794510432787,0.005445835935262683,-0.2449997561577409]}],[{"bias":-0.04011483481209349,"weights":[]},{"bias":-0.12744108775309151,"weights":[]},{"bias":0.11753254416091016,"weights":[]},{"bias":-0.0026404090480856846,"weights":[]}]]