[[{"bias":-0.000038852328367214306,"weights":[-0.17343967165817958,0.05826444215252655,-0.022206441757237946,-0.012400235675771809]},{"bias":-0.2576481026446846,"weights":[0.0710500887109178,0.07203942052297023,-0.04086326312017413,-0.06270286890541489]},{"bias":0.2581696759603889,"weights":[-0.16130659437324626,-0.1584315763535068,-0.2043042024299091,0.09789933890140667]},{"bias":0.04916741064548839,"weights":[0.09347804763467238,-0.06567653046768238,-0.09694667474425259,-0.18390237428477174]},{"bias":-0.0043930297635519505,"weights":[-0.16235938014323523,-0.02753134547730436,-0.01003498933833161,-0.09140295737775767]},{"bias":0.007465424690661479,"weights":[0.08271980462545578,0.046272688672996394,-0.10809604630842048,0.08688316075797776]},{"bias":0.023338791694793387,"weights":[-0.038592131252566456,0.2154452221473305,0.037049514289971275,-0.024050680069280968]},{"bias":0.09953158350740293,"weights":[-0.04504777856665528,-0.024257652483043676,-0.04586820273263962,0.2695126282090208]},{"bias":0.07266726878658063,"weights":[-0.04357868226715851,0.06600403305448643,0.010112824807543969,-0.02745230434799452]},{"bias":0.03561517194455444,"weights":[0.018267658605407543,-0.08074160742130435,-0.0750755365409639,-0.0936678045986558]},{"bias":-0.08862703554499723,"weights":[0.05114506450603426,0.034931514000423707,0.16754577480582003,0.0005328892488638132]},{"bias":-0.26226611393177374,"weights":[-0.2127915806091012,0.04140236262764324,0.020211397991141133,-0.1931366885449379]},{"bias":-0.14106533262283816,"weights":[0.1767058659610016,0.036614292744215286,-0.06084372381576659,0.06850218056361415]},{"bias":-0.12838322703874844,"weights":[0.0600810548516263,0.20466912868910173,0.11840350017646079,-0.21776555749821]},{"bias":0.032457706938133046,"weights":[0.03218304169628958,-0.10326544533732371,-0.053041069849051214,-0.04079948351938384]},{"bias":0.12173111864764805,"weights":[-0.28719548747806456,-0.1823517057415196,0.16792425782946296,-0.09023281951357526]},{"bias":0.1241526368946485,"weights":[-0.2040659089878993,0.12135419934143098,0.11804314052748938,-0.11673359206498138]},{"bias":-0.04425703112690515,"weights":[-0.20418795129124245,-0.17953801708552086,0.09960308598854489,-0.18178862724409267]},{"bias":0.03744086862189888,"weights":[0.04518321660492004,-0.05056780341741047,-0.23105807476825097,0.08001225479677829]},{"bias":0.15064111924153106,"weights":[0.23457992829477448,-0.03069713589676077,-0.21878187512525926,0.23197924939570064]},{"bias":-0.24010248953730934,"weights":[-0.016220897121809956,-0.01251987404928491,-0.12265806969102583,0.007090240314635149]},{"bias":0.1158856159488752,"weights":[0.03582616074090395,0.03873482808683788,0.1242085121646849,-0.041664840569441725]},{"bias":0.04352533388371166,"weights":[0.17749349308429208,-0.18512417384483917,0.11616281346019372,0.13864588063464842]},{"bias":-0.009632569954072544,"weights":[0.12667990070838653,-0.04884701437856685,0.1560124225381319,0.23761271174564916]},{"bias":0.08497376299758752,"weights":[0.12148195612575183,0.2156607030987224,-0.12853951772496897,-0.17958940221907183]},{"bias":0.006347566015947506,"weights":[0.08431952938752937,0.26777977194665464,-0.05185314515796479,0.10606221287348858]},{"bias":0.1492593608296221,"weights":[0.12356705717748444,0.0015651824566860414,-0.2497975330687485,-0.06419555804863528]},{"bias":0.10410129451885172,"weights":[0.0042385836874718474,0.08923774483392923,-0.04946905792599692,0.039746618334591796]},{"bias":-0.013201514859695992,"weights":[-0.13018731008634699,-0.024724379081050143,-0.11781231821404181,0.05098295264420871]},{"bias":-0.16379365173456278,"weights":[-0.002386618022457314,-0.07302800657050826,-0.13442762306888276,-0.22799825104438726]},{"bias":0.042001656995588006,"weights":[0.24188996991013215,0.22762615159450622,-0.233897351629919,-0.11514516409693562]},{"bias":-0.3036359762668116,"weights":[-0.000590361134151729,-0.07325234473977904,0.20154925994823192,-0.1819036856141708]}],[{"bias":-0.07387376096980672,"weights":[-0.09595242625792931,0.01862619512423161,0.16525825101853125,-0.03758727699944908]},{"bias":0.01557864940266998,"weights":[0.09365145993263008,0.00020611041657715365,0.2030809423116874,0.010596768360811873]},{"bias":-0.014343702289028287,"weights":[0.08042264895409673,-0.060974695473135915,-0.05724247103550554,0.18090741474690256]},{"bias":-0.08780309479992235,"weights":[-0.06847204520060765,0.18502094409613942,0.09413959113080098,-0.13486508905833372]}],[{"bias":-0.0049983084097158376,"weights":[]},{"bias":-0.0335925837349159,"weights":[]},{"bias":0.06069730649605059,"weights":[]},{"bias":-0.07459452378900873,"weights":[]}]]