[[{"bias":-0.15876740007136048,"weights":[-0.0022994437405276305,0.03883517381788132,0.05047817325527708,-0.07863268830506322]},{"bias":0.022422034928988966,"weights":[-0.06907415650416028,-0.23422482892797877,-0.12993016379677086,-0.14593014569968968]},{"bias":0.11448686999319367,"weights":[-0.10749798228399385,0.045985485883602586,-0.034459906935087714,0.08862995972797133]},{"bias":-0.0770686271994208,"weights":[-0.18718062559326953,-0.05731371505042399,0.1302731707597427,0.031185394696645545]},{"bias":0.043246013476318054,"weights":[-0.02528674177676067,0.14560248252343744,0.10646252119170736,0.07147254854539642]},{"bias":0.08158194404675827,"weights":[0.02440922426528658,-0.02338321663481986,-0.04451716727511971,0.07277100769179533]},{"bias":-0.07087844331745113,"weights":[-0.07371838941034083,0.04727901602329823,0.21120829073669423,0.08804910796867081]},{"bias":-0.042595648186533504,"weights":[0.1452520177856517,0.17812364925782642,0.20003461777212134,-0.11208015206582546]},{"bias":0.12067075652132866,"weights":[-0.2834270228464193,-0.06686377323537837,-0.13209636642894013,-0.05476777815109533]},{"bias":-0.0558801688562485,"weights":[0.12522202143089298,-0.14630492124682154,0.19984992737735452,0.09677547845699191]},{"bias":-0.2510335008008052,"weights":[0.09867216888076666,0.06117365729769103,-0.07348957556477215,-0.26712531524955735]},{"bias":-0.1183198735609455,"weights":[-0.227155797319774,0.10850697485639643,0.19821445905882057,-0.19113689113570442]},{"bias":-0.05478383304526121,"weights":[0.024015654092090125,-0.06161077317540939,-0.04532020818043436,-0.03009380520252633]},{"bias":-0.03728371185083283,"weights":[-0.17319291874825127,-0.07114204772324692,-0.07119816249980865,-0.07836842397138377]},{"bias":0.17727216445553073,"weights":[0.08787807823093034,-0.05829277590221198,-0.1325695076041035,0.3095173579119156]},{"bias":0.19969811471625687,"weights":[0.0034367906910695196,0.039667941534357355,-0.12828922840786214,-0.15479353343520807]},{"bias":-0.1720166421764437,"weights":[-0.16935318851154932,-0.016208122840571708,0.22013114310519197,-0.054424993433518656]},{"bias":0.08442653293648039,"weights":[-0.13375101254599298,-0.19538516975415407,0.1287195053504004,-0.11536672164880496]},{"bias":0.17372415009305991,"weights":[0.0030581144574283736,-0.1807959606503501,-0.31221677602330633,-0.05484365297516347]},{"bias":-0.1726131547461379,"weights":[0.24274835341313017,0.013959048335444688,-0.33639458139928424,-0.00010860613268262598]},{"bias":0.09112989540889713,"weights":[-0.12922659355794974,-0.01219370572610176,0.07147927390371263,-0.003461980159028627]},{"bias":0.09531507190894514,"weights":[-0.08494214805158787,0.03854166073574518,-0.20620088676265552,0.1127325164511297]},{"bias":0.03941331635192086,"weights":[-0.047809064127530616,0.03792538096530845,-0.11485197193204401,-0.1513694423027222]},{"bias":-0.05661622003134287,"weights":[0.07225641984722433,-0.14568008215255787,-0.11878852647936575,0.022182960935001744]},{"bias":-0.030235840191587593,"weights":[0.08011786501872972,-0.010497028693410834,-0.0629037982808476,0.2161724894842687]},{"bias":-0.015131372169425616,"weights":[-0.0258260489599377,0.17764632860731033,-0.2326916615168656,-0.10908910484019463]},{"bias":-0.13906031670852392,"weights":[0.17240014732215886,0.011225145634222333,0.18992428768191955,-0.09338174472229152]},{"bias":-0.10184399298357968,"weights":[0.1213906628620556,-0.11433839819029928,-0.12099917234243548,0.17733292239800863]},{"bias":0.17494856613351903,"weights":[-0.11417036906029754,-0.025906185122839556,-0.1634764522171912,-0.03815621841282178]},{"bias":0.09825710564327284,"weights":[-0.08885127647750984,0.05685338749094267,-0.07413053101923847,-0.027395360613962777]},{"bias":0.0015255165901091258,"weights":[-0.08213568541452351,0.1679686570897874,0.1994197438050167,-0.19128059802514635]},{"bias":-0.034488823931416744,"weights":[-0.09709622101246687,0.0664928866485103,0.2553547510962227,-0.16408356782968314]}],[{"bias":-0.005304539425726135,"weights":[0.18055832837417485,0.37788626185728674,0.08022348467318546,-0.029222744362671395]},{"bias":0.3996554291533411,"weights":[-0.1778882189527453,0.1386436120522717,0.1779379298086592,-0.017458111397489286]},{"bias":0.08293569262913023,"weights":[-0.03883388978886489,-0.0691211407138505,-0.16355822263450165,0.0027110285107170007]},{"bias":0.19899436012466698,"weights":[-0.009650580778200909,0.00952038091949342,-0.04739811219014081,0.16747012712487042]}],[{"bias":0.16849807017219579,"weights":[]},{"bias":-0.08913113489486077,"weights":[]},{"bias":0.007092587890150222,"weights":[]},{"bias":-0.07572360632549464,"weights":[]}]]