[[{"bias":-0.23765527617086804,"weights":[0.026268705712719095,0.09039625726327058,0.031093236793959124,-0.025121383479184363]},{"bias":0.22163739805503857,"weights":[0.09702368126333585,-0.3745424507682783,-0.01599946465410601,-0.24482825036795514]},{"bias":0.18390317406561224,"weights":[-0.08493092440550651,0.05145613681406291,-0.06281895508325455,0.05861926507854313]},{"bias":-0.11398051140514942,"weights":[-0.1970362318408559,0.012475228838221178,0.0808905534193926,0.02281006426964413]},{"bias":-0.02667984982331907,"weights":[-0.06624206017874865,0.06001378723593398,0.0852435234956696,-0.04210385131703054]},{"bias":-0.01333222351591666,"weights":[0.048144462741146046,-0.25394013462475773,-0.0748223790270973,0.06876925855393813]},{"bias":0.029496906115820176,"weights":[0.10414697932643022,0.04998791675889311,0.03823454893873769,-0.030528716673178524]},{"bias":0.031940604824982524,"weights":[0.024928613663578757,0.022396099300728965,0.18510316860504672,-0.14324662318227355]},{"bias":0.15148553209728444,"weights":[-0.11887698658141543,-0.14408813629315728,0.11481497613805632,0.006250108304805019]},{"bias":0.0063099442463411815,"weights":[-0.14309708327304793,-0.05389655619254838,0.17423939304973923,0.000962206269009197]},{"bias":-0.2104030635645243,"weights":[0.25436725544435446,-0.14848564181094223,-0.10421476091179827,-0.21365117765708228]},{"bias":-0.01540318645197938,"weights":[-0.28060784266795247,0.10548182885841423,0.19897336259271764,-0.16319996879009904]},{"bias":-0.15546613862446326,"weights":[0.1054035447724945,0.2131489336389286,-0.023193709550847794,-0.004209641436971643]},{"bias":0.09151586505679492,"weights":[-0.10257213358952376,-0.031177060604538835,-0.11634770444093404,-0.08625847523855791]},{"bias":-0.017433066233424513,"weights":[0.02083904044700806,-0.08257999491964527,-0.003889506955723497,0.22105846926727968]},{"bias":0.04892115369734194,"weights":[-0.12244370456422134,0.2797402427366804,-0.18133342205144004,-0.18745245694050763]},{"bias":0.020000159621301576,"weights":[-0.18904375966580994,0.051554938588265056,0.18363695878744934,-0.20707643436588702]},{"bias":-0.1557583687366373,"weights":[-0.17063074664265437,-0.05757227044095554,0.07615056646898948,-0.005378322986313966]},{"bias":0.11546923353193089,"weights":[-0.16390519429632988,-0.28567541367315014,-0.33105858997831156,-0.15515108398140773]},{"bias":-0.08657110684284186,"weights":[0.4044397744504573,-0.06380326989490673,-0.20280699529114196,-0.07497645066717565]},{"bias":-0.009808010923023677,"weights":[-0.10579525705785955,-0.0391217814709129,-0.05028420520634557,-0.02139075288899012]},{"bias":0.06825063718294583,"weights":[-0.09836474338614593,0.07377944400399558,-0.1328930055889021,0.11193916149471561]},{"bias":-0.04013937410005776,"weights":[-0.031176602274397072,-0.024197822698700626,-0.18324626481621484,-0.11346196532759252]},{"bias":-0.1546028820302311,"weights":[0.02976598112543174,-0.08601887426557914,-0.09535259113102641,0.04395712952586028]},{"bias":-0.08057061468521481,"weights":[0.16817526117921563,-0.0962662793317556,0.033012761114272066,-0.011591678267128244]},{"bias":0.03127043597068164,"weights":[-0.07583017150985873,0.21534183087243372,-0.10965981356918565,0.07722201692633379]},{"bias":-0.009127245245395682,"weights":[0.3164198494000451,0.05028054893257901,0.12618350144588278,0.04987705501433131]},{"bias":0.008687128752340165,"weights":[0.05734177774385751,-0.09156346516335143,-0.08568917067306724,0.002759302308658798]},{"bias":0.04204708201679333,"weights":[-0.07385454818759325,-0.05336216741267315,-0.042457606099404445,0.0014504921625218443]},{"bias":-0.10076082034458082,"weights":[-0.06970004860036767,0.008905878187473019,-0.04803272253343535,-0.13571419780513175]},{"bias":0.006953185900327077,"weights":[0.028062781589454744,0.06429492538142217,0.04037398400801484,-0.21226632746096036]},{"bias":-0.05995684120337184,"weights":[-0.2940337683249054,0.1096045624282889,0.31176087915157824,-0.03037296496761538]}],[{"bias":0.03198540120929899,"weights":[0.10312827086616558,0.3121622176724598,0.02776014182109912,-0.03967512843453816]},{"bias":0.12222205739949585,"weights":[-0.16174192469947002,0.10932255175276953,0.09026695142068084,0.12143531120033714]},{"bias":0.16278564513481436,"weights":[0.033505537411707025,-0.036520874182717496,-0.26944887430467535,0.021320445077109527]},{"bias":0.035459135320333096,"weights":[0.047291235506037047,0.1501322691265008,-0.051272123663265654,0.07793656547026401]}],[{"bias":0.23357662870694998,"weights":[]},{"bias":-0.06903040491021561,"weights":[]},{"bias":0.10240259536264151,"weights":[]},{"bias":-0.08510061979990688,"weights":[]}]]